{
    "version": "0.5.0",
    "architecture": "WaveNet",
    "config": {
        "layers": [
            {
                "input_size": 1,
                "condition_size": 1,
                "head_size": 8,
                "channels": 16,
                "kernel_size": 3,
                "dilations": [
                    1,
                    2,
                    4,
                    8,
                    16,
                    32,
                    64,
                    128,
                    256,
                    512
                ],
                "activation": "Tanh",
                "gated": false,
                "head_bias": false
            },
            {
                "input_size": 16,
                "condition_size": 1,
                "head_size": 1,
                "channels": 8,
                "kernel_size": 3,
                "dilations": [
                    1,
                    2,
                    4,
                    8,
                    16,
                    32,
                    64,
                    128,
                    256,
                    512
                ],
                "activation": "Tanh",
                "gated": false,
                "head_bias": true
            }
        ],
        "head": null,
        "head_scale": 0.02
    },
    "weights": [
        0.15958142280578613,
        0.5812710523605347,
        -0.9142551422119141,
        -0.8543313145637512,
        -0.3830476701259613,
        0.43240055441856384,
        -0.11305668950080872,
        0.882861852645874,
        -0.1652991771697998,
        0.33839669823646545,
        -0.37108680605888367,
        -0.3960168659687042,
        -1.1163605451583862,
        -0.7369309663772583,
        -0.43425291776657104,
        0.11777643114328384,
        0.05616943538188934,
        -0.09789992868900299,
        -0.223666712641716,
        -0.1299750804901123,
        -0.11873290687799454,
        -0.012544476427137852,
        0.03780970722436905,
        0.2851733863353729,
        0.11394625902175903,
        0.08252258598804474,
        0.3108941912651062,
        0.006149670109152794,
        -0.021901747211813927,
        0.13621124625205994,
        0.07659371197223663,
        0.058963920921087265,
        -0.2795461416244507,
        -0.21013304591178894,
        -0.03950214758515358,
        0.07865846157073975,
        0.07590498775243759,
        0.055810198187828064,
        -0.1144494116306305,
        -0.06901094317436218,
        0.07548318058252335,
        0.12196599692106247,
        0.17550162971019745,
        -0.20090505480766296,
        -0.2871929109096527,
        -0.2163076251745224,
        0.15715208649635315,
        0.2665490508079529,
        0.07744861394166946,
        0.05970423296093941,
        0.2820626199245453,
        0.28938406705856323,
        0.12529721856117249,
        0.1978243738412857,
        0.23480047285556793,
        -0.01742423325777054,
        0.20708157122135162,
        0.02836274914443493,
        -0.030469397082924843,
        0.1001344621181488,
        0.19960469007492065,
        -0.018267067149281502,
        -0.2851839065551758,
        -0.10578086972236633,
        0.14967598021030426,
        -0.06372615694999695,
        0.0955711379647255,
        0.05106326937675476,
        0.015405917540192604,
        0.20036929845809937,
        -0.13010452687740326,
        0.01725267991423607,
        -0.007519724313169718,
        0.10144717991352081,
        0.19648635387420654,
        0.06377284973859787,
        0.010528823360800743,
        -0.055015306919813156,
        -0.050159651786088943,
        -0.06868162751197815,
        -0.20564299821853638,
        0.19496643543243408,
        0.07139047980308533,
        -0.08773990720510483,
        -0.05121302232146263,
        -0.006632139440625906,
        -0.09530537575483322,
        -0.003018214600160718,
        0.03408413752913475,
        -0.016964515671133995,
        -0.013547826558351517,
        0.09287846833467484,
        0.03366461768746376,
        0.1190439984202385,
        -0.1615941971540451,
        -0.025436339899897575,
        0.007170548662543297,
        0.007183262147009373,
        -0.04049747437238693,
        -0.15047487616539001,
        0.11689737439155579,
        0.1692831814289093,
        -0.12683458626270294,
        -0.05375203862786293,
        -0.06647835671901703,
        -0.06561555713415146,
        -0.127216637134552,
        -0.04139241576194763,
        -0.07232493162155151,
        0.04183834791183472,
        -0.12863147258758545,
        0.1501375138759613,
        -0.25220656394958496,
        0.2265956848859787,
        -0.0603102445602417,
        -0.16609540581703186,
        0.032625846564769745,
        -0.003917898517102003,
        0.06641961634159088,
        -0.038044754415750504,
        0.07045852392911911,
        0.05719096586108208,
        -0.14257167279720306,
        0.08489478379487991,
        -0.09349241107702255,
        -0.15606166422367096,
        -0.023761114105582237,
        -0.12744702398777008,
        0.021402060985565186,
        -0.14274029433727264,
        0.06167784333229065,
        -0.06154760718345642,
        -0.03087805025279522,
        -0.05437103286385536,
        0.17469559609889984,
        -0.03046167828142643,
        0.07112884521484375,
        -0.08493512868881226,
        0.06493209302425385,
        0.03715220466256142,
        0.20831111073493958,
        0.07060034573078156,
        0.18694257736206055,
        -0.08416496217250824,
        -0.110649973154068,
        -0.004871896002441645,
        0.02651125192642212,
        0.027653593569993973,
        -0.023642323911190033,
        -0.1816820204257965,
        -0.11942792683839798,
        -0.07356588542461395,
        -0.10143106430768967,
        0.09581047296524048,
        0.12305118143558502,
        -0.2104162722826004,
        0.10388324409723282,
        -0.1814219057559967,
        0.04036504775285721,
        -0.10136929154396057,
        0.10550694167613983,
        -0.13081581890583038,
        -0.23266905546188354,
        -0.08858571201562881,
        -0.07938165962696075,
        -0.09688716381788254,
        -0.10381496697664261,
        0.11409059911966324,
        -0.036063052713871,
        -0.05028451234102249,
        0.18837641179561615,
        0.03638447821140289,
        0.09228787571191788,
        0.10809461027383804,
        -0.04047054797410965,
        0.13859139382839203,
        -0.07896669954061508,
        -0.16506053507328033,
        0.0305874552577734,
        -0.04111764580011368,
        0.107082799077034,
        0.008504467085003853,
        0.04273747280240059,
        -0.054357755929231644,
        0.014091596007347107,
        0.11473400890827179,
        0.05845116451382637,
        0.016334522515535355,
        -0.17864607274532318,
        -0.01581619121134281,
        0.07193463295698166,
        0.16120760142803192,
        -0.009305469691753387,
        -0.04666977748274803,
        -0.03933718428015709,
        0.024680156260728836,
        -0.1239013671875,
        0.1087372899055481,
        0.010339918546378613,
        -0.0434706024825573,
        0.0676683858036995,
        0.18763265013694763,
        -0.1462894231081009,
        -0.04138202965259552,
        0.007155167404562235,
        0.15244346857070923,
        -0.11292815208435059,
        0.036988515406847,
        -0.07179033756256104,
        0.20274688303470612,
        -0.09111230075359344,
        0.006989177782088518,
        0.21169912815093994,
        -0.0066907769069075584,
        -0.03539988771080971,
        -0.17683067917823792,
        -0.1360853910446167,
        -0.10756513476371765,
        -0.08055107295513153,
        -0.1401578038930893,
        -0.049648553133010864,
        -0.052120376378297806,
        0.026801923289895058,
        0.026804393157362938,
        0.0761847198009491,
        0.08933037519454956,
        -0.09283483773469925,
        -0.26074907183647156,
        -0.0437951423227787,
        0.012618551030755043,
        0.1979532688856125,
        0.142379030585289,
        -0.0009511421085335314,
        -0.07572201639413834,
        0.07381157577037811,
        -0.06209840252995491,
        0.265015572309494,
        -0.07986128330230713,
        -0.09028124809265137,
        -0.15398894250392914,
        0.02705012448132038,
        0.09047891199588776,
        -0.2509383261203766,
        -0.01685703918337822,
        0.04088880494236946,
        -0.33701586723327637,
        0.0810849741101265,
        -0.1515592336654663,
        -0.19471055269241333,
        -0.047652438282966614,
        -0.11355740576982498,
        -0.1751781702041626,
        0.09621760249137878,
        -0.0200345516204834,
        0.11377126723527908,
        -0.04707127436995506,
        -0.36229637265205383,
        0.0774560421705246,
        -0.15557792782783508,
        -0.1188880056142807,
        -0.036254893988370895,
        0.14490775763988495,
        0.10092141479253769,
        0.06017574295401573,
        -0.005204952321946621,
        -0.020019596442580223,
        -0.08979829400777817,
        -0.013607226312160492,
        0.14093054831027985,
        -0.011396968737244606,
        -0.12611599266529083,
        -0.10824442654848099,
        -0.09407494962215424,
        0.08459740877151489,
        0.013522501103579998,
        -0.1729729026556015,
        0.10527561604976654,
        -0.11965901404619217,
        0.03323107957839966,
        0.09814710170030594,
        0.05624573677778244,
        -0.13905106484889984,
        -0.1600138396024704,
        0.07899391651153564,
        0.06930427998304367,
        0.1733701527118683,
        -0.017710842192173004,
        -0.007745521608740091,
        -0.0865037813782692,
        0.042654335498809814,
        -0.12574659287929535,
        -0.003592797787860036,
        0.07307178527116776,
        -0.0509563684463501,
        -0.09011238068342209,
        -0.061315469443798065,
        0.04981806501746178,
        -0.163490429520607,
        0.08171363174915314,
        -0.09942527115345001,
        -0.1264602243900299,
        -0.024314112961292267,
        -0.03178137168288231,
        0.06875089555978775,
        -0.1841408759355545,
        -0.03205382078886032,
        -0.1094009205698967,
        0.035295866429805756,
        0.13336889445781708,
        -0.010983475483953953,
        -0.08970389515161514,
        -0.10295824706554413,
        0.04666348546743393,
        -0.01951538771390915,
        -0.025461900979280472,
        0.09515323489904404,
        -0.048977095633745193,
        -0.07806657254695892,
        0.055072762072086334,
        -0.03186947479844093,
        0.09173647314310074,
        0.012939375825226307,
        -0.02381550520658493,
        -0.09140370041131973,
        0.1360546201467514,
        0.09892319142818451,
        0.16402864456176758,
        0.020813869312405586,
        0.12406391650438309,
        -0.15086646378040314,
        -0.10352706909179688,
        -0.16346879303455353,
        0.224365696310997,
        0.08930466324090958,
        -0.06448128074407578,
        -0.02571231499314308,
        0.1101527139544487,
        0.19493819773197174,
        0.04678115248680115,
        0.11997690051794052,
        -0.0015471124788746238,
        -0.1297793686389923,
        0.11654011905193329,
        0.11393492668867111,
        -0.16698047518730164,
        0.12903636693954468,
        0.09708189964294434,
        -0.001084950752556324,
        -0.09341797977685928,
        -0.01885322481393814,
        0.025657735764980316,
        0.08564373105764389,
        -0.04938771203160286,
        0.11996438354253769,
        0.056269776076078415,
        0.14179134368896484,
        0.012182438746094704,
        0.17168386280536652,
        -0.1798492819070816,
        -0.032084401696920395,
        -0.19799986481666565,
        -0.22051255404949188,
        -0.18014684319496155,
        0.014081807807087898,
        0.0011513306526467204,
        0.07231489568948746,
        0.016798174008727074,
        -0.049958668649196625,
        -0.03584715351462364,
        0.07794234156608582,
        -0.1538083702325821,
        0.021044626832008362,
        -0.20581583678722382,
        0.008039561100304127,
        -0.075720876455307,
        0.01762840524315834,
        0.0475669726729393,
        0.05519292876124382,
        0.007308537140488625,
        0.18763083219528198,
        0.19139601290225983,
        0.06253182888031006,
        -0.013845689594745636,
        0.06266449391841888,
        -0.05157654732465744,
        0.06650301069021225,
        0.01343228667974472,
        -0.012119055725634098,
        -0.12951897084712982,
        0.006251526530832052,
        -0.08396308869123459,
        -0.11229788511991501,
        -0.14567899703979492,
        -0.1804237812757492,
        -0.18888092041015625,
        0.032855045050382614,
        0.0035298666916787624,
        0.04864083230495453,
        -0.022409537807106972,
        0.2010086625814438,
        0.003241988830268383,
        0.030267171561717987,
        -0.20935235917568207,
        0.15523721277713776,
        0.12520349025726318,
        -0.10565812885761261,
        0.11843632161617279,
        0.040430501103401184,
        -0.05282086133956909,
        0.06365375965833664,
        -0.1508740484714508,
        -0.020749151706695557,
        0.1026500016450882,
        -0.062116917222738266,
        -0.10348938405513763,
        -0.03500284254550934,
        0.0267346128821373,
        -0.037142492830753326,
        0.02698771469295025,
        0.060565296560525894,
        0.04864318668842316,
        -0.07028255611658096,
        0.07583484798669815,
        0.06808144599199295,
        0.06708063185214996,
        -0.19781582057476044,
        -0.007067935075610876,
        -0.09400802850723267,
        0.005754078738391399,
        0.04617403820157051,
        -0.11809242516756058,
        -0.016365820541977882,
        0.12665723264217377,
        -0.0005398386856541038,
        -0.1607929766178131,
        -0.03909462317824364,
        0.012547328136861324,
        -0.17785599827766418,
        0.07281247526407242,
        -0.1486322432756424,
        -0.20794057846069336,
        -0.13853421807289124,
        -0.049304112792015076,
        0.028705395758152008,
        -0.13630981743335724,
        0.12400193512439728,
        0.007568140048533678,
        0.016294123604893684,
        -0.12014708667993546,
        0.06416088342666626,
        0.30929654836654663,
        0.07097183167934418,
        0.25660908222198486,
        0.22625665366649628,
        -0.0854785367846489,
        -0.0013255629455670714,
        -0.14644098281860352,
        0.0814807191491127,
        -0.24034970998764038,
        -0.19880886375904083,
        -0.1368887573480606,
        -0.1751110702753067,
        -0.1186695545911789,
        -0.13577820360660553,
        0.1740509271621704,
        0.24067263305187225,
        0.0851977989077568,
        -0.2677050232887268,
        -0.2828574478626251,
        -0.05464841052889824,
        0.18664558231830597,
        0.29838430881500244,
        0.1118578240275383,
        -0.1572529375553131,
        -0.11489713937044144,
        -0.16050072014331818,
        0.003515142947435379,
        0.2263249009847641,
        -0.06496907025575638,
        -0.05789681524038315,
        -0.2586098611354828,
        -0.04225446283817291,
        -0.24827657639980316,
        -0.09191494435071945,
        -0.0038331218529492617,
        -0.010892214253544807,
        -0.06716065853834152,
        0.09241058677434921,
        -0.12036730349063873,
        -0.20176860690116882,
        -0.02659330703318119,
        -0.10225384682416916,
        -0.080170176923275,
        -0.11878326535224915,
        0.2687748670578003,
        0.1456405222415924,
        -0.021380752325057983,
        -0.1963300108909607,
        0.3104565441608429,
        0.14074726402759552,
        -0.2978368103504181,
        0.17843778431415558,
        0.06197807565331459,
        0.24609841406345367,
        0.040565118193626404,
        -0.08923252671957016,
        0.20708703994750977,
        -0.02375088445842266,
        -0.05205218493938446,
        0.20749495923519135,
        -0.12077774852514267,
        0.10566144436597824,
        -0.203443706035614,
        0.035690974444150925,
        0.005194080527871847,
        0.20991453528404236,
        -0.18025000393390656,
        0.023309629410505295,
        -0.07755233347415924,
        0.06786993891000748,
        0.023293394595384598,
        0.12258583307266235,
        -0.04434574767947197,
        -0.09062711894512177,
        -0.2462020218372345,
        0.011600245721638203,
        0.11940407752990723,
        0.11982417851686478,
        -0.08572250604629517,
        -0.08847035467624664,
        0.3102736473083496,
        0.049717970192432404,
        -0.11964631825685501,
        0.04601829871535301,
        -0.19163985550403595,
        -0.011869543232023716,
        0.12428081780672073,
        -0.17712420225143433,
        -0.062122784554958344,
        0.18553809821605682,
        -0.15741762518882751,
        0.05470298230648041,
        -0.1800495684146881,
        0.03304104879498482,
        0.09709621220827103,
        0.02180548571050167,
        -0.057038478553295135,
        -0.020320409908890724,
        -0.13912858068943024,
        0.08431557565927505,
        -0.11079524457454681,
        -0.048032745718955994,
        0.1974058747291565,
        -0.06777754426002502,
        0.11831513792276382,
        0.04148285835981369,
        -0.003093634732067585,
        0.0562729611992836,
        0.14677837491035461,
        -0.013135823421180248,
        -0.23197968304157257,
        -0.13664406538009644,
        -0.050540413707494736,
        0.18640775978565216,
        -0.0601540170609951,
        0.11182045936584473,
        -0.12137259542942047,
        -0.07959116250276566,
        0.12557010352611542,
        0.1649205982685089,
        0.16604427993297577,
        0.061920493841171265,
        -0.13529223203659058,
        -0.14831188321113586,
        0.012488150037825108,
        0.21181978285312653,
        0.004102826118469238,
        -0.11704825609922409,
        0.151195228099823,
        0.1911395788192749,
        -0.016684360802173615,
        -0.030124707147479057,
        -0.07644197344779968,
        0.05947139114141464,
        0.07940362393856049,
        -0.019426379352808,
        0.05636800825595856,
        0.14383241534233093,
        0.16902697086334229,
        0.10314295440912247,
        -0.1067744567990303,
        -0.16014261543750763,
        -0.05563952028751373,
        0.13226890563964844,
        0.09598782658576965,
        0.03463806211948395,
        -0.21002978086471558,
        0.07557183504104614,
        0.1630496084690094,
        0.2115197777748108,
        -0.07007622718811035,
        -0.028427811339497566,
        -0.017584843561053276,
        0.18858268857002258,
        -0.034243736416101456,
        0.015769096091389656,
        0.12802855670452118,
        -0.08832430839538574,
        -0.15140920877456665,
        -0.06307818740606308,
        -0.012173217721283436,
        -0.05038575828075409,
        0.1465698629617691,
        -0.09046252816915512,
        -0.03094104491174221,
        0.0729474276304245,
        0.0921875536441803,
        0.09731961041688919,
        0.1676986813545227,
        -0.004240022506564856,
        -0.1472468078136444,
        0.08602387458086014,
        0.05837127938866615,
        -0.06149455904960632,
        0.007542439736425877,
        -0.07847236841917038,
        0.20693157613277435,
        0.026960227638483047,
        -0.10501714795827866,
        0.07350477576255798,
        0.14402613043785095,
        0.06381995230913162,
        0.12741748988628387,
        0.06531976908445358,
        0.08114691078662872,
        0.04552798345685005,
        -0.006449040956795216,
        -0.15627636015415192,
        -0.18239620327949524,
        0.02246275544166565,
        0.055494438856840134,
        -0.0034059579484164715,
        0.1580020934343338,
        0.016779892146587372,
        -0.15508024394512177,
        0.11373034864664078,
        -0.09333650767803192,
        0.1842859983444214,
        -0.09383736550807953,
        -0.0466897115111351,
        0.14418840408325195,
        -0.039749760180711746,
        0.11201170086860657,
        -0.03603898361325264,
        -0.1002659946680069,
        -0.047045495361089706,
        -0.0392783060669899,
        0.11967037618160248,
        -0.12281379848718643,
        0.1227564662694931,
        -0.05324118956923485,
        -0.02120746672153473,
        0.04093802347779274,
        -0.13192959129810333,
        -0.011882795952260494,
        0.19975225627422333,
        -0.01564064435660839,
        0.1293148696422577,
        -0.10818784683942795,
        0.10062878578901291,
        -0.1536281257867813,
        0.046525921672582626,
        -0.008367674425244331,
        0.023444335907697678,
        0.11717123538255692,
        0.12050919234752655,
        -0.03222356364130974,
        0.05814387649297714,
        0.11880243569612503,
        -0.05067382752895355,
        0.1927274614572525,
        -0.07665544003248215,
        -0.0244707353413105,
        0.056657008826732635,
        0.08430943638086319,
        0.12551261484622955,
        -0.08686882257461548,
        -0.1171986311674118,
        0.062019605189561844,
        0.12308625131845474,
        0.012568255886435509,
        -0.035056278109550476,
        0.16732892394065857,
        0.16494831442832947,
        -0.04077369347214699,
        -0.21474431455135345,
        0.0742926076054573,
        -0.15824422240257263,
        -0.04700924828648567,
        -0.004776959773153067,
        -0.11924842745065689,
        -0.02709895931184292,
        -0.15543025732040405,
        0.08330604434013367,
        -0.010593435727059841,
        0.007137713022530079,
        -0.0161410104483366,
        0.02282536029815674,
        -0.07719770073890686,
        0.14438465237617493,
        0.06047247722744942,
        -0.04315846785902977,
        -0.16716431081295013,
        -0.21417659521102905,
        0.12537269294261932,
        0.013183892704546452,
        0.0879581943154335,
        0.06313785165548325,
        0.047768257558345795,
        0.0406452976167202,
        0.09222923964262009,
        -0.15444184839725494,
        -0.10351163893938065,
        -0.10636696964502335,
        -0.13490910828113556,
        -0.0443962924182415,
        0.10960200428962708,
        -0.16641585528850555,
        0.0073845842853188515,
        -0.10013607889413834,
        -0.08002495020627975,
        0.03650318831205368,
        -0.05819955840706825,
        0.047731272876262665,
        -0.02501821145415306,
        0.12958773970603943,
        0.1876438558101654,
        -0.3542703092098236,
        0.17390607297420502,
        -0.005052529741078615,
        -0.3145206868648529,
        0.038248512893915176,
        0.01602255180478096,
        0.1603727638721466,
        0.035523463040590286,
        0.021868759766221046,
        0.2986985445022583,
        -0.10954877734184265,
        -0.11105161160230637,
        0.15373244881629944,
        -0.14718683063983917,
        0.11170210689306259,
        -0.10039450228214264,
        0.16174206137657166,
        -0.12386523932218552,
        0.26892581582069397,
        -0.1292027086019516,
        0.2091970294713974,
        -0.2611665725708008,
        -0.06653136014938354,
        -0.09531919658184052,
        0.2956506311893463,
        -0.1782740205526352,
        0.23629257082939148,
        -0.15387843549251556,
        -0.06509942561388016,
        -0.13491281867027283,
        0.3278007507324219,
        -0.14732283353805542,
        -0.15976683795452118,
        0.26110631227493286,
        -0.16831810772418976,
        -0.022251693531870842,
        0.27801981568336487,
        0.055984076112508774,
        -0.19393377006053925,
        0.3459351062774658,
        -0.11959969252347946,
        0.04770996421575546,
        0.060478754341602325,
        -0.16180729866027832,
        0.2032010555267334,
        -0.1841139942407608,
        0.06751162558794022,
        -0.1589212417602539,
        -0.09028337895870209,
        -0.06847409904003143,
        -0.10609470307826996,
        0.09523680061101913,
        0.007783251814544201,
        -0.04187000170350075,
        -0.017089059576392174,
        0.12703387439250946,
        0.06643614172935486,
        -0.06436604261398315,
        -0.03261340782046318,
        -0.18077874183654785,
        -0.10170766711235046,
        -0.024301962926983833,
        -0.024089857935905457,
        0.30880865454673767,
        -0.36477944254875183,
        0.7857429385185242,
        -0.7953077554702759,
        0.028015103191137314,
        0.9576799273490906,
        0.9997473955154419,
        -0.47930365800857544,
        0.18064148724079132,
        0.271205335855484,
        -0.3897131681442261,
        -0.4014114737510681,
        0.2176298052072525,
        -0.7185312509536743,
        0.19289298355579376,
        0.46330028772354126,
        -0.13914410769939423,
        0.21345923840999603,
        0.03436286002397537,
        0.08675480633974075,
        0.2936403155326843,
        -0.026368150487542152,
        0.1919506937265396,
        -0.029028913006186485,
        -0.023875970393419266,
        0.019800160080194473,
        0.020268986001610756,
        -0.10624609142541885,
        0.08416211605072021,
        -0.029655003920197487,
        0.22844083607196808,
        -0.018839124590158463,
        0.0409475676715374,
        -0.006017141044139862,
        -0.2512231171131134,
        0.17678800225257874,
        -0.03572173789143562,
        -0.11340326070785522,
        -0.12601755559444427,
        0.14362317323684692,
        -0.1440969556570053,
        0.11020439118146896,
        0.1554863601922989,
        0.13267116248607635,
        0.1778574138879776,
        0.02740681916475296,
        0.07539387792348862,
        0.3958461582660675,
        0.031283050775527954,
        0.03564001992344856,
        -0.06697433441877365,
        0.2300475686788559,
        -0.14928963780403137,
        -0.22340337932109833,
        0.03252710402011871,
        -0.15116378664970398,
        -0.045080944895744324,
        -0.1935785859823227,
        0.1992022842168808,
        -0.15116430819034576,
        0.1278916299343109,
        0.3143949806690216,
        0.024869225919246674,
        -0.009142808616161346,
        0.30148062109947205,
        0.06257830560207367,
        -0.12242576479911804,
        0.014862352050840855,
        -0.21865910291671753,
        -0.08290789276361465,
        -0.07970855385065079,
        -0.08566565066576004,
        -0.40436863899230957,
        -0.1308569312095642,
        0.1967155635356903,
        0.16035817563533783,
        0.3065744936466217,
        0.41191479563713074,
        -0.3008617162704468,
        0.09198076277971268,
        -0.13761045038700104,
        -0.25997865200042725,
        -0.1367110162973404,
        0.19756227731704712,
        0.19343656301498413,
        0.13510072231292725,
        0.18946440517902374,
        -0.15319111943244934,
        0.05796820670366287,
        0.2615990936756134,
        -0.23733069002628326,
        0.20858575403690338,
        0.037913333624601364,
        0.14040793478488922,
        -0.0836508572101593,
        -0.11868227273225784,
        -0.2098722904920578,
        -0.10022304207086563,
        0.18502691388130188,
        0.010318049229681492,
        0.31206169724464417,
        0.3368975520133972,
        0.32575562596321106,
        0.16846530139446259,
        0.26442185044288635,
        0.04362507164478302,
        -0.30657079815864563,
        -0.1820308119058609,
        -0.06483859568834305,
        -0.22978612780570984,
        0.24434299767017365,
        -0.01441038865596056,
        0.1320066601037979,
        0.05886060371994972,
        0.131357803940773,
        0.1779012531042099,
        -0.315687358379364,
        -0.305789053440094,
        0.004694442730396986,
        0.0038747533690184355,
        0.04748889058828354,
        -0.37737736105918884,
        -0.19086511433124542,
        0.2643240690231323,
        0.16007928550243378,
        -0.12546589970588684,
        0.0012743643019348383,
        -0.1900903880596161,
        0.2080061435699463,
        0.029355978593230247,
        0.3305423855781555,
        -0.27147117257118225,
        -0.19110213220119476,
        0.24103964865207672,
        0.29442381858825684,
        0.10273993015289307,
        0.19403858482837677,
        -0.16960160434246063,
        0.1348365694284439,
        -0.2713897228240967,
        0.03384794294834137,
        -0.20784629881381989,
        -0.029315752908587456,
        0.06846935302019119,
        -0.12548388540744781,
        -0.0074039944447577,
        -0.28892549872398376,
        -0.2099558413028717,
        0.0710350051522255,
        -0.16467362642288208,
        -0.21094006299972534,
        -0.09292304515838623,
        -0.23801207542419434,
        -0.2263437807559967,
        0.16969257593154907,
        0.17070068418979645,
        0.04940542206168175,
        -0.09398733824491501,
        0.02726592682301998,
        -0.02912878431379795,
        -0.1299780309200287,
        0.2161904275417328,
        0.13798071444034576,
        -0.14243420958518982,
        -0.3622949421405792,
        -0.03333082050085068,
        0.09722944349050522,
        -0.15524302423000336,
        -0.061368826776742935,
        0.0820401981472969,
        0.22958311438560486,
        0.11016902327537537,
        0.3886553645133972,
        0.2660069465637207,
        -0.2487296760082245,
        0.19786567986011505,
        0.12162742018699646,
        0.270348459482193,
        -0.32672199606895447,
        0.19109013676643372,
        -0.12971913814544678,
        -0.2809293270111084,
        -0.01576743647456169,
        -0.06393613666296005,
        -0.039619386196136475,
        -0.1988288313150406,
        -0.05969073623418808,
        0.04896561801433563,
        -0.05605057254433632,
        0.2208918333053589,
        -0.025427615270018578,
        0.3842630982398987,
        0.12626959383487701,
        -0.0031353274825960398,
        0.005598173011094332,
        0.11141806095838547,
        -0.11745189130306244,
        -0.27387645840644836,
        -0.16631218791007996,
        -0.1214526891708374,
        -0.12129365652799606,
        -0.349436491727829,
        0.10606507211923599,
        -0.06553390622138977,
        -0.0035642115399241447,
        0.27633681893348694,
        -0.3495040833950043,
        -0.13491837680339813,
        0.02713063918054104,
        -0.0475495308637619,
        -0.017549924552440643,
        0.11119706928730011,
        0.07245644181966782,
        -0.2802501320838928,
        -0.07653281837701797,
        0.0745965838432312,
        0.16993801295757294,
        -0.11189933121204376,
        -0.1314084678888321,
        0.19228705763816833,
        0.17604723572731018,
        -0.09092742204666138,
        -0.18080762028694153,
        0.08260861039161682,
        0.025410998612642288,
        -0.16831845045089722,
        -0.23686890304088593,
        0.15177547931671143,
        -0.1817922741174698,
        0.09092656522989273,
        0.10756462067365646,
        -0.013816489838063717,
        -0.08835486322641373,
        -0.15592969954013824,
        0.08233971893787384,
        0.13537754118442535,
        -0.13728420436382294,
        0.02026168443262577,
        -0.304026335477829,
        0.24598023295402527,
        -0.15332186222076416,
        0.20196574926376343,
        -0.047435905784368515,
        -0.147422194480896,
        0.1518816500902176,
        0.03444037213921547,
        0.18481095135211945,
        0.08460833132266998,
        -0.22376444935798645,
        0.17368289828300476,
        -0.09383144229650497,
        -0.09296922385692596,
        0.17859436571598053,
        0.16137416660785675,
        -0.1968877613544464,
        -0.039091095328330994,
        0.24377882480621338,
        0.08635596930980682,
        0.28466102480888367,
        -0.09663783758878708,
        -0.12353131920099258,
        0.23657651245594025,
        0.16555368900299072,
        0.21183063089847565,
        -0.10624692589044571,
        -0.15263767540454865,
        -0.03575983643531799,
        -0.22008055448532104,
        0.11796899139881134,
        0.1708001047372818,
        0.13070739805698395,
        -0.022386949509382248,
        0.05632931366562843,
        -0.19481968879699707,
        0.2685381770133972,
        -0.30254289507865906,
        -0.2612224817276001,
        -0.05457276105880737,
        0.2379644364118576,
        0.020337238907814026,
        0.09542970359325409,
        -0.26804476976394653,
        0.08848545700311661,
        -0.028066176921129227,
        0.09776032716035843,
        0.1772402673959732,
        0.09458363056182861,
        -0.07506583631038666,
        -0.02569798193871975,
        0.09168542176485062,
        -0.08203993737697601,
        0.08321688324213028,
        -0.31229206919670105,
        -0.0576004832983017,
        -0.013021242804825306,
        -0.12844374775886536,
        0.12980763614177704,
        -0.18166492879390717,
        -0.1949046105146408,
        -0.005970868747681379,
        -0.1468786895275116,
        -0.0580877922475338,
        0.04393628612160683,
        0.06430581212043762,
        0.08675479888916016,
        -0.018316127359867096,
        0.032089557498693466,
        -0.12579071521759033,
        0.22333163022994995,
        -0.010333115234971046,
        0.018824631348252296,
        -0.2785261571407318,
        0.03327542170882225,
        -0.03861786797642708,
        -0.008627570234239101,
        -0.17729006707668304,
        -0.1365358531475067,
        -0.20548129081726074,
        -0.06332847476005554,
        -0.22632886469364166,
        0.07779626548290253,
        -0.044629551470279694,
        -0.2520379424095154,
        0.13542629778385162,
        -0.05423210561275482,
        -0.052382953464984894,
        0.09495588392019272,
        0.0014057316584512591,
        -0.01210008841007948,
        0.008849089965224266,
        -0.1636977195739746,
        0.19397366046905518,
        0.09997230023145676,
        0.03982966020703316,
        -0.0925987958908081,
        -0.2705196738243103,
        0.00023555688676424325,
        -0.054541513323783875,
        0.27720072865486145,
        -0.24947215616703033,
        0.008556684479117393,
        -0.08553166687488556,
        0.07126215845346451,
        0.08924868702888489,
        0.0013143825344741344,
        -0.09794341772794724,
        0.09909114241600037,
        -0.23013785481452942,
        0.07415821403265,
        -0.2064201533794403,
        0.1147361770272255,
        -0.24939459562301636,
        -0.2945540249347687,
        0.10620450973510742,
        0.18726897239685059,
        -0.03569094091653824,
        -0.2374163717031479,
        -0.03933640569448471,
        -0.12539424002170563,
        0.14760032296180725,
        -0.0031981433276087046,
        0.11066476255655289,
        -0.15452145040035248,
        -0.016373952850699425,
        0.029486460611224174,
        -0.2431177943944931,
        0.15056978166103363,
        0.176746666431427,
        -0.15920759737491608,
        0.03464358299970627,
        0.0883907750248909,
        -0.039715658873319626,
        0.0707077756524086,
        0.023798169568181038,
        -0.1380794644355774,
        0.11801186203956604,
        0.18936723470687866,
        -0.07829965651035309,
        0.1068328469991684,
        -0.011793470941483974,
        0.12275107949972153,
        -0.2291938066482544,
        -0.00549188582226634,
        -0.12425432354211807,
        -0.14087644219398499,
        -0.1637749969959259,
        -0.01716272532939911,
        0.15261206030845642,
        0.17065311968326569,
        -0.1020662859082222,
        0.05489148944616318,
        0.13599424064159393,
        -0.008142645470798016,
        0.1590036153793335,
        0.04164548218250275,
        -0.1121797189116478,
        0.09459768980741501,
        -0.06694439053535461,
        0.06383997201919556,
        -0.1184786707162857,
        -0.003358873538672924,
        0.1952359676361084,
        0.22314190864562988,
        -0.017641816288232803,
        -0.09432849287986755,
        -0.07156620919704437,
        -0.11668301373720169,
        0.25803810358047485,
        0.029270874336361885,
        -0.05372241884469986,
        -0.13266399502754211,
        -0.022716516628861427,
        0.10452035814523697,
        -0.08649037033319473,
        -0.04603340104222298,
        -0.07161037623882294,
        -0.0024479939602315426,
        0.15187448263168335,
        -0.004724286030977964,
        -0.007204111665487289,
        0.13070595264434814,
        0.06679299473762512,
        -0.11052573472261429,
        0.040185678750276566,
        0.037834879010915756,
        0.04802272468805313,
        -0.13215774297714233,
        -0.009463205933570862,
        0.01846042275428772,
        -0.08999790996313095,
        0.16507311165332794,
        0.2610200345516205,
        -0.045579805970191956,
        -0.03966769948601723,
        -0.025620287284255028,
        -0.06593979895114899,
        0.06558211147785187,
        0.11126912385225296,
        -0.06236346438527107,
        -0.2157239317893982,
        -0.11462604999542236,
        -3.6571706004906446e-05,
        0.015219117514789104,
        -0.09038993716239929,
        -0.067036934196949,
        -0.09601322561502457,
        -0.1184161826968193,
        0.08141952753067017,
        0.22750477492809296,
        -0.03833114355802536,
        -0.027175849303603172,
        0.10464438050985336,
        0.12636852264404297,
        0.05072023719549179,
        0.1411001831293106,
        0.059948358684778214,
        -0.018329909071326256,
        -0.21390023827552795,
        0.10252818465232849,
        0.18536818027496338,
        -0.12105214595794678,
        0.09064758569002151,
        -0.027390548959374428,
        -0.20612971484661102,
        0.05845505744218826,
        -0.10775113850831985,
        -0.056767042726278305,
        0.17736031115055084,
        -0.06380020081996918,
        0.054049938917160034,
        0.00017131866479758173,
        0.008323406800627708,
        -0.20412641763687134,
        -0.05556059256196022,
        -0.08910495787858963,
        -0.10481251776218414,
        0.035718031227588654,
        0.16997253894805908,
        0.13407433032989502,
        0.10085975378751755,
        -0.10177015513181686,
        0.023152077570557594,
        0.04355476424098015,
        0.030216412618756294,
        0.022748369723558426,
        -0.07582412660121918,
        -0.03139118477702141,
        0.14666910469532013,
        -0.0635233074426651,
        -0.13996250927448273,
        0.047328002750873566,
        0.03689331188797951,
        -0.11307850480079651,
        -0.08654452115297318,
        -0.1811913400888443,
        -0.12785851955413818,
        0.07498466968536377,
        -0.03617621585726738,
        0.21103228628635406,
        0.022732459008693695,
        0.04149976745247841,
        0.07808294147253036,
        0.09802835434675217,
        0.2617581784725189,
        0.10422582924365997,
        0.07377119362354279,
        -0.08986836671829224,
        -0.08697342872619629,
        -0.15272961556911469,
        0.019150586798787117,
        0.15611302852630615,
        -0.025072554126381874,
        -0.023408731445670128,
        -0.0907103568315506,
        0.045456238090991974,
        0.03543747961521149,
        -0.18814100325107574,
        -0.0809076577425003,
        0.022131742909550667,
        0.05251964554190636,
        0.018822066485881805,
        0.04837166890501976,
        -0.05072455853223801,
        -0.13831056654453278,
        -0.176106795668602,
        0.10529376566410065,
        0.010933256708085537,
        -0.003722784575074911,
        -0.038528814911842346,
        -0.04611947387456894,
        -0.05308257043361664,
        -0.09443347901105881,
        0.07503047585487366,
        0.0210911575704813,
        -0.11217162013053894,
        -0.10200981795787811,
        0.08857875317335129,
        -0.04831017926335335,
        0.004371635615825653,
        0.07652655243873596,
        -0.06162335351109505,
        0.09786128252744675,
        0.06080179661512375,
        0.16078756749629974,
        -0.007121723145246506,
        -0.056951750069856644,
        0.00836921762675047,
        -0.267404705286026,
        -0.04567907750606537,
        0.1462932825088501,
        -0.04587699845433235,
        0.04996374249458313,
        0.09467654675245285,
        0.09050337225198746,
        0.007990416139364243,
        0.15740609169006348,
        -0.09289143234491348,
        -0.12108895182609558,
        0.009617647156119347,
        -0.022241873666644096,
        0.10005839169025421,
        0.076961450278759,
        -0.17226552963256836,
        0.09255686402320862,
        0.013302367180585861,
        0.016968615353107452,
        0.11364121735095978,
        -0.08635199815034866,
        -0.1730499118566513,
        0.11720574647188187,
        -0.038628239184617996,
        0.1908627301454544,
        -0.10076551139354706,
        -0.02670104242861271,
        -0.01705753244459629,
        -0.014750633388757706,
        -0.021001078188419342,
        -0.041264548897743225,
        0.05982847884297371,
        0.043177202343940735,
        0.2911166548728943,
        -0.07638797163963318,
        0.07807557284832001,
        0.03261265531182289,
        -0.004778991919010878,
        0.188384011387825,
        0.10694976150989532,
        -0.09057710319757462,
        -0.04730002209544182,
        0.0685577318072319,
        0.015593057498335838,
        0.04350285604596138,
        -0.027076780796051025,
        0.2510840594768524,
        0.15201561152935028,
        -0.038131218403577805,
        -0.09248572587966919,
        -0.12530142068862915,
        0.024503108114004135,
        0.13837933540344238,
        0.0764584094285965,
        -0.018743153661489487,
        -0.26032283902168274,
        0.06256556510925293,
        0.1096416711807251,
        0.01433498039841652,
        0.19196584820747375,
        0.05298260226845741,
        -0.07256941497325897,
        0.026844194158911705,
        0.1515720784664154,
        -0.14254947006702423,
        0.1544221192598343,
        0.16200394928455353,
        -0.052143726497888565,
        0.024216780439019203,
        0.15505343675613403,
        -0.2503754794597626,
        -0.036568157374858856,
        -0.0592481829226017,
        -0.04600374400615692,
        -0.1384705901145935,
        -0.039951056241989136,
        0.11925023049116135,
        -0.15989524126052856,
        0.07841672748327255,
        0.012521284632384777,
        0.0778140276670456,
        -0.1974021941423416,
        -0.15901140868663788,
        -0.11041959375143051,
        -0.04163753241300583,
        0.19247440993785858,
        -0.08863674849271774,
        -0.16738221049308777,
        -0.04613053798675537,
        -0.08820945024490356,
        -0.14516697824001312,
        -0.1797991394996643,
        0.15512290596961975,
        0.03442513942718506,
        -0.11210950464010239,
        0.0563926137983799,
        -0.0799572616815567,
        0.1340334117412567,
        0.06122122332453728,
        -0.028000783175230026,
        -0.09000904858112335,
        0.02830733172595501,
        -0.1919957548379898,
        0.19583721458911896,
        0.11689823865890503,
        0.039760127663612366,
        -0.036601822823286057,
        0.08322401344776154,
        -0.22853578627109528,
        0.05733086168766022,
        -0.020532725378870964,
        -0.1276261955499649,
        0.184783473610878,
        -0.04777710512280464,
        -0.017552891746163368,
        0.07747339457273483,
        -0.0953328087925911,
        -0.06363517791032791,
        -0.03378143161535263,
        0.010931500233709812,
        0.10654836148023605,
        0.14261870086193085,
        -0.06545799970626831,
        -0.025493739172816277,
        -0.10593606531620026,
        0.19429653882980347,
        0.22138796746730804,
        -0.10018756985664368,
        -0.12636391818523407,
        -0.2458718866109848,
        -0.11385544389486313,
        0.04696772247552872,
        -0.024007733911275864,
        0.21441620588302612,
        0.02995677851140499,
        -0.08782024681568146,
        -0.08070787042379379,
        0.07913371175527573,
        0.12205491214990616,
        0.032954417169094086,
        0.020763712003827095,
        0.22511912882328033,
        -0.08666544407606125,
        0.060414329171180725,
        -0.0034132590517401695,
        0.12614896893501282,
        -0.03946741297841072,
        -0.06807297468185425,
        -0.040654417127370834,
        -0.0625532940030098,
        -0.17894504964351654,
        0.21310432255268097,
        -0.03727239742875099,
        0.007194471079856157,
        -0.15642185509204865,
        -0.04249779134988785,
        -0.1831648200750351,
        0.0121390949934721,
        -0.11912026256322861,
        -0.15140022337436676,
        0.1571630835533142,
        -0.08574303239583969,
        0.07019911706447601,
        0.12269464135169983,
        -0.04109284654259682,
        -0.14466993510723114,
        -0.07961080223321915,
        -0.07260396331548691,
        -0.07765673846006393,
        0.02783256210386753,
        0.016536222770810127,
        -0.07791744917631149,
        -0.21711646020412445,
        0.12847045063972473,
        0.017603328451514244,
        -0.04686439409852028,
        -0.09861371666193008,
        0.14624252915382385,
        0.1256157010793686,
        -0.15371666848659515,
        0.001787633285857737,
        0.012554795481264591,
        -0.052047524601221085,
        0.18384911119937897,
        0.012031963095068932,
        0.15911255776882172,
        -0.01494539063423872,
        0.007425141055136919,
        -0.04836587235331535,
        -0.12586040794849396,
        0.02587086148560047,
        -0.01870572380721569,
        -0.052030231803655624,
        0.11263095587491989,
        -0.12636493146419525,
        0.06425581127405167,
        0.05022691935300827,
        -0.05602811276912689,
        0.14747218787670135,
        0.024571824818849564,
        -0.16202141344547272,
        -0.06770753115415573,
        0.01626463606953621,
        -0.10629063844680786,
        0.09848858416080475,
        0.1595517098903656,
        0.00775951100513339,
        0.02390357479453087,
        0.06074269115924835,
        -0.05912945047020912,
        -0.10805489122867584,
        -0.03915625065565109,
        -0.15522688627243042,
        0.07469560205936432,
        0.030005790293216705,
        -0.04001547023653984,
        -0.14792613685131073,
        0.08596236258745193,
        -0.07449735701084137,
        -0.031031567603349686,
        -0.13243302702903748,
        -0.051829323172569275,
        0.07891470938920975,
        -0.08043552935123444,
        -0.20285186171531677,
        -0.012803743593394756,
        -0.21763519942760468,
        0.17237678170204163,
        0.18120460212230682,
        0.19971062242984772,
        -0.14080387353897095,
        -0.028110696002840996,
        -0.02022998221218586,
        -0.16863378882408142,
        -0.13572891056537628,
        -0.2612692415714264,
        -0.054626207798719406,
        -0.060498204082250595,
        -0.06435232609510422,
        0.031132971867918968,
        0.21067915856838226,
        0.18547646701335907,
        -0.18854154646396637,
        -0.06944417953491211,
        -0.0037423502653837204,
        0.1647300273180008,
        0.19365262985229492,
        0.26726073026657104,
        -0.1747550368309021,
        -0.27478766441345215,
        -0.17696110904216766,
        0.21882855892181396,
        0.08693597465753555,
        -0.01606850139796734,
        0.17256413400173187,
        0.12265666574239731,
        -0.04542584344744682,
        0.2170640379190445,
        0.18139280378818512,
        0.1503566950559616,
        0.23109199106693268,
        0.14377301931381226,
        0.18830327689647675,
        0.1792895495891571,
        0.17514868080615997,
        0.11698605120182037,
        -0.2769978940486908,
        -0.4040895104408264,
        -0.1825607568025589,
        0.056114453822374344,
        -0.0008230743696913123,
        0.061218589544296265,
        -0.023465188220143318,
        -0.031016262248158455,
        -0.2823401689529419,
        0.06222713366150856,
        0.19544069468975067,
        0.011645608581602573,
        0.14423884451389313,
        0.10741955041885376,
        -0.060926664620637894,
        0.015716763213276863,
        0.04897496849298477,
        -0.007703280076384544,
        -0.16043466329574585,
        0.03675295412540436,
        0.14664919674396515,
        -0.018190952017903328,
        -0.15612360835075378,
        -0.09587769210338593,
        -0.06196082755923271,
        0.07247024774551392,
        0.09050381183624268,
        0.263482928276062,
        -0.053980905562639236,
        -0.18182767927646637,
        -0.20896656811237335,
        0.05928363651037216,
        -0.15170100331306458,
        0.0845426619052887,
        0.10877376794815063,
        -0.19852077960968018,
        0.04662398621439934,
        0.07999388873577118,
        -0.13926970958709717,
        0.09980221837759018,
        -0.0499705970287323,
        -0.017410200089216232,
        0.26262494921684265,
        0.09340998530387878,
        -0.13585475087165833,
        0.14351728558540344,
        0.12414825707674026,
        0.025497647002339363,
        -0.26574644446372986,
        -0.0911579504609108,
        0.05921199545264244,
        0.014910522848367691,
        0.05941702798008919,
        -0.03635352849960327,
        0.0581950917840004,
        0.12963126599788666,
        -0.03757273778319359,
        0.09499064832925797,
        0.130752831697464,
        -0.03764906898140907,
        -0.0387849397957325,
        0.050822626799345016,
        -0.06585845351219177,
        0.1356646567583084,
        -0.12015830725431442,
        -0.13077308237552643,
        -0.04483424127101898,
        -0.20680001378059387,
        0.11335015296936035,
        -0.11566716432571411,
        -0.1255912333726883,
        -0.04896850883960724,
        -0.13012847304344177,
        -0.08421432226896286,
        0.03998080641031265,
        -0.08326879143714905,
        0.15186914801597595,
        0.14875705540180206,
        -0.10284002125263214,
        0.030493661761283875,
        -0.19508704543113708,
        0.08994712680578232,
        0.2171783149242401,
        0.049806732684373856,
        0.07433303445577621,
        -0.13773088157176971,
        -0.045834098011255264,
        0.06965620070695877,
        -0.10109812766313553,
        0.10222940146923065,
        -0.0288892462849617,
        0.035941947251558304,
        -0.08881437033414841,
        0.18047969043254852,
        -0.03834906965494156,
        0.07100366801023483,
        -0.014993072487413883,
        0.04750242829322815,
        -0.026851430535316467,
        -0.05429670587182045,
        -0.07465384900569916,
        0.06928267329931259,
        0.048046134412288666,
        0.15202324092388153,
        0.06343652307987213,
        0.061006098985672,
        -0.16469359397888184,
        0.08227652311325073,
        -0.0653645247220993,
        -0.025276558473706245,
        0.02109994925558567,
        0.01297244057059288,
        0.07719087600708008,
        0.19086097180843353,
        -0.06691648811101913,
        0.05192183330655098,
        -0.10892772674560547,
        -0.06701573729515076,
        0.02447141706943512,
        0.03757424280047417,
        0.11717289686203003,
        0.056866955012083054,
        -0.06490129232406616,
        0.0029164478182792664,
        -0.08240799605846405,
        0.10426614433526993,
        0.09206297993659973,
        -0.0858440026640892,
        0.1307600885629654,
        -0.0467095784842968,
        -0.04139617085456848,
        -0.07364007085561752,
        -0.06592226028442383,
        -0.008264893665909767,
        -0.06782660633325577,
        -0.17225328087806702,
        -0.10987690836191177,
        -0.026740990579128265,
        0.052568431943655014,
        0.05890733376145363,
        -0.12534815073013306,
        -0.034132570028305054,
        -0.060959186404943466,
        -0.10432697087526321,
        -0.024934548884630203,
        -0.07022970914840698,
        0.07316286116838455,
        -0.026042841374874115,
        -0.09124288707971573,
        -0.030308416113257408,
        -0.12095379084348679,
        0.27568942308425903,
        -0.06891869753599167,
        -0.030479425564408302,
        0.2158549278974533,
        -0.04184803366661072,
        -0.08538076281547546,
        0.014715047553181648,
        -0.06043829768896103,
        0.034045591950416565,
        0.020734593272209167,
        0.011274895630776882,
        0.1502762883901596,
        -0.23203295469284058,
        0.0351242832839489,
        -0.07236355543136597,
        0.07623995095491409,
        -0.016929805278778076,
        -0.020729882642626762,
        -0.017850607633590698,
        -0.011332530528306961,
        0.03727387636899948,
        -0.0025088763795793056,
        -0.12180353701114655,
        -0.17281889915466309,
        -0.06161485239863396,
        0.031038524582982063,
        -0.039169494062662125,
        0.2539677321910858,
        0.022826917469501495,
        0.04542836919426918,
        0.16646839678287506,
        -0.12885893881320953,
        0.05041325464844704,
        0.05287397280335426,
        -0.09317442774772644,
        -0.08323194831609726,
        0.07657245546579361,
        -0.0954141765832901,
        0.014469298534095287,
        -0.019122207537293434,
        -0.1235189437866211,
        0.031222917139530182,
        -0.09351442754268646,
        0.048814114183187485,
        -0.08993703126907349,
        0.06105385348200798,
        -0.056991394609212875,
        0.05928042158484459,
        0.15064935386180878,
        0.11032205075025558,
        0.05735462158918381,
        0.08555255830287933,
        0.04925080016255379,
        0.08300144225358963,
        0.11631625890731812,
        -0.11073525995016098,
        0.009155984967947006,
        0.014872192405164242,
        0.06097264960408211,
        -0.09214905649423599,
        -0.2125846892595291,
        0.015000450424849987,
        0.00899441260844469,
        0.04459627717733383,
        -0.2581418454647064,
        0.0063171726651489735,
        -0.11880146712064743,
        -0.10210475325584412,
        -0.08894743025302887,
        -0.008594406768679619,
        -0.018240544945001602,
        -0.12302946299314499,
        0.15107333660125732,
        0.10170675069093704,
        0.02818032167851925,
        0.1684812754392624,
        -0.12512217462062836,
        0.0006392963114194572,
        0.02020491659641266,
        -0.04889737442135811,
        -0.05961918458342552,
        -0.15806739032268524,
        -0.024655260145664215,
        0.03664589673280716,
        0.15548554062843323,
        -0.11849334836006165,
        0.07841097563505173,
        -0.07821615785360336,
        0.06406152993440628,
        -0.015335958451032639,
        0.1445423811674118,
        0.16163794696331024,
        0.20762045681476593,
        0.14476904273033142,
        -0.00590573949739337,
        0.09770853817462921,
        -0.044900670647621155,
        0.10906732082366943,
        0.11673978716135025,
        0.16556662321090698,
        -0.030409440398216248,
        -0.09072395414113998,
        0.1810307502746582,
        0.10991498827934265,
        0.11377810686826706,
        0.02061193250119686,
        0.111383818089962,
        -0.057241298258304596,
        -0.5005425214767456,
        0.4001966416835785,
        0.4456345736980438,
        -0.5686257481575012,
        0.28897160291671753,
        -0.882968008518219,
        -0.09141476452350616,
        -0.4850388467311859,
        0.6982074975967407,
        -1.0134958028793335,
        -0.6931173205375671,
        -0.929517924785614,
        0.19620081782341003,
        -0.8269895315170288,
        0.4207238554954529,
        -0.6433964371681213,
        -0.01916573755443096,
        -0.197475865483284,
        -0.08938249200582504,
        0.30331772565841675,
        0.21672488749027252,
        -0.0657123327255249,
        -0.5557920932769775,
        0.037213996052742004,
        0.10244154930114746,
        -0.1318189799785614,
        0.11021433770656586,
        -0.06125624105334282,
        -0.0519571453332901,
        0.09255367517471313,
        -0.21679022908210754,
        -0.18877246975898743,
        0.023882634937763214,
        -0.1737687587738037,
        -0.13674643635749817,
        0.013525418937206268,
        -0.3291279077529907,
        0.2124033123254776,
        -0.0787416398525238,
        -0.22840015590190887,
        0.15662331879138947,
        -0.12982606887817383,
        0.12683475017547607,
        0.24776194989681244,
        0.046400923281908035,
        0.11053450405597687,
        0.07751987874507904,
        0.20580996572971344,
        -0.028814759105443954,
        -0.26609665155410767,
        -0.18847578763961792,
        0.16365163028240204,
        -0.03890889883041382,
        0.2746288776397705,
        -0.2856762409210205,
        0.13548757135868073,
        0.004783890675753355,
        0.09527651220560074,
        -0.2573956847190857,
        -0.21573106944561005,
        0.026648247614502907,
        0.17029252648353577,
        0.0952618196606636,
        0.02786829136312008,
        0.10052578151226044,
        0.10408130288124084,
        -0.24277859926223755,
        -0.1983797699213028,
        -0.2683888375759125,
        0.07707452774047852,
        -0.06481394916772842,
        -0.07782426476478577,
        -0.08112303912639618,
        0.12494131922721863,
        0.15621821582317352,
        0.3268752694129944,
        0.21200703084468842,
        -0.012332143262028694,
        0.04254339635372162,
        0.0883498340845108,
        0.4303198456764221,
        0.019366474822163582,
        -0.06037236750125885,
        -0.1259336918592453,
        0.2038317620754242,
        -0.08799749612808228,
        -0.1080685406923294,
        0.35238686203956604,
        0.3655048906803131,
        -0.07522428780794144,
        -0.143954336643219,
        0.2231428623199463,
        -0.209855318069458,
        -0.14538587629795074,
        -0.19180172681808472,
        -0.2294037789106369,
        -0.25497353076934814,
        -0.2228824645280838,
        -0.11865045130252838,
        -0.03978334367275238,
        0.2097480297088623,
        -0.3042210042476654,
        -0.007708946242928505,
        -0.12602362036705017,
        0.12389945238828659,
        0.19877853989601135,
        -0.14677897095680237,
        -0.2909894585609436,
        -0.2636416554450989,
        -0.29186028242111206,
        0.04273974522948265,
        0.03645657002925873,
        -0.039659325033426285,
        -0.12543639540672302,
        0.10268817842006683,
        -0.2611805498600006,
        0.016249168664216995,
        0.27918392419815063,
        -0.15314707159996033,
        -0.24370382726192474,
        0.01724941097199917,
        0.07409171015024185,
        -0.1619030237197876,
        0.21554049849510193,
        0.13815681636333466,
        0.0018778258236125112,
        -0.029400886967778206,
        0.31376704573631287,
        0.1387273222208023,
        -0.029842423275113106,
        0.051035959273576736,
        0.15819743275642395,
        0.16435867547988892,
        -0.16397066414356232,
        -0.0696718618273735,
        0.10831911116838455,
        -0.038156162947416306,
        0.20271305739879608,
        -0.2984848618507385,
        -0.01294928789138794,
        -0.2316039651632309,
        0.0030543040484189987,
        0.11204245686531067,
        0.0005226789508014917,
        -0.01302875205874443,
        0.16558730602264404,
        -0.19452537596225739,
        -0.14134812355041504,
        -0.22622789442539215,
        -0.13588422536849976,
        -0.017255067825317383,
        -0.10613400489091873,
        0.053411878645420074,
        0.03372199088335037,
        0.30032721161842346,
        -0.0402502678334713,
        -0.028866617009043694,
        0.17443794012069702,
        -0.07696901261806488,
        0.24371734261512756,
        -0.26858046650886536,
        0.03994001820683479,
        -0.09948145598173141,
        0.014135380275547504,
        -0.028115522116422653,
        -0.028270583599805832,
        0.26182910799980164,
        -0.19765157997608185,
        -0.17367810010910034,
        0.13737618923187256,
        0.3142525553703308,
        0.38660216331481934,
        0.3109276592731476,
        0.15762752294540405,
        0.2366228699684143,
        0.03199377655982971,
        -0.08196604996919632,
        -0.1114310547709465,
        -0.29127365350723267,
        0.12033238261938095,
        -0.017909429967403412,
        -0.02613239921629429,
        -0.11648149788379669,
        0.03774657100439072,
        0.15472939610481262,
        0.2495613843202591,
        -0.19914458692073822,
        0.10654566437005997,
        0.09472639113664627,
        0.11352082341909409,
        -0.022573847323656082,
        0.07859676331281662,
        0.07553382217884064,
        0.24009466171264648,
        -0.3758278787136078,
        -0.10702142864465714,
        -0.2940179109573364,
        -0.006286972668021917,
        -0.01697147823870182,
        0.18637868762016296,
        -0.18943199515342712,
        0.2846583127975464,
        0.2695338726043701,
        -0.03656626492738724,
        0.054484814405441284,
        0.0015693504828959703,
        0.11668749898672104,
        -0.06097356975078583,
        -0.10257814079523087,
        -0.2677382230758667,
        -0.2769986689090729,
        0.1806495189666748,
        -0.04091323912143707,
        0.06839074939489365,
        -0.3243294656276703,
        0.21012701094150543,
        -0.03419962525367737,
        0.02130446769297123,
        -0.26902011036872864,
        -0.2147240936756134,
        0.19182473421096802,
        -0.07447541505098343,
        -0.055758435279130936,
        -0.06220437213778496,
        0.14545512199401855,
        0.13576725125312805,
        -0.26979538798332214,
        0.16403105854988098,
        -0.29422447085380554,
        0.07917285710573196,
        -0.09453602135181427,
        -0.02481602132320404,
        0.17596368491649628,
        0.24795091152191162,
        0.060380611568689346,
        -0.0007823947235010564,
        0.2208864688873291,
        0.19719576835632324,
        0.08523450046777725,
        -0.05156535282731056,
        -0.03650761395692825,
        0.25558802485466003,
        0.017076129093766212,
        -0.08659552037715912,
        -0.21362408995628357,
        -0.1376376897096634,
        0.18118739128112793,
        -0.0571846105158329,
        -0.09483439475297928,
        0.10674340277910233,
        -0.17008136212825775,
        -0.024915119633078575,
        -0.007304963655769825,
        0.06718628108501434,
        0.24484451115131378,
        0.18246214091777802,
        0.28289833664894104,
        -0.23115460574626923,
        -0.06950151920318604,
        0.059251297265291214,
        -0.15022188425064087,
        0.036341119557619095,
        -0.27480411529541016,
        0.18571142852306366,
        0.38704341650009155,
        -0.2605123221874237,
        0.1698705404996872,
        0.04138832539319992,
        -0.3235837519168854,
        0.24275463819503784,
        -0.35461658239364624,
        -0.2538257837295532,
        -0.2290571928024292,
        -0.04086647182703018,
        0.02516689896583557,
        -0.11137931793928146,
        -0.20645590126514435,
        -0.007053910288959742,
        0.21845728158950806,
        0.19236202538013458,
        0.09750581532716751,
        -0.015222545713186264,
        0.04138965159654617,
        -0.2271672487258911,
        0.09299342334270477,
        -0.24896536767482758,
        -0.125143900513649,
        -0.09501383453607559,
        0.1504172831773758,
        -0.038909025490283966,
        0.07727731764316559,
        -0.002936931559816003,
        -0.06051691249012947,
        -0.06791377812623978,
        0.06426072120666504,
        -0.026194540783762932,
        -0.04841337725520134,
        0.11511598527431488,
        -0.04177558049559593,
        -0.07086266577243805,
        0.2274254560470581,
        -0.06820932775735855,
        -0.005209226161241531,
        -0.014387806877493858,
        0.012489461340010166,
        -0.039357323199510574,
        -0.11627577990293503,
        -0.01395382359623909,
        -0.019319305196404457,
        -0.08467303961515427,
        0.018229205161333084,
        -0.1680280715227127,
        -0.031943537294864655,
        0.20299074053764343,
        0.050010599195957184,
        -0.05442794784903526,
        0.098289854824543,
        -0.0986303836107254,
        -0.04811730608344078,
        0.07346444576978683,
        -0.047278210520744324,
        -0.018774673342704773,
        0.07428641617298126,
        0.014061277732253075,
        0.0820489376783371,
        -0.18763920664787292,
        0.06677884608507156,
        0.011076122522354126,
        0.16839471459388733,
        -0.05738499388098717,
        0.09237109124660492,
        0.22661715745925903,
        -0.18916280567646027,
        0.1403072476387024,
        -0.3282727301120758,
        0.006704855710268021,
        -0.09281611442565918,
        -0.14600037038326263,
        0.1564449816942215,
        -0.0956416055560112,
        0.15186487138271332,
        -0.13675270974636078,
        0.1381143033504486,
        0.12277887761592865,
        0.13186559081077576,
        -0.030800605192780495,
        -0.044810887426137924,
        -0.1117500364780426,
        0.16376779973506927,
        -0.11756979674100876,
        -0.02585291862487793,
        -0.05133254453539848,
        0.00018176622688770294,
        -0.057943910360336304,
        0.09492383152246475,
        -0.06443663686513901,
        0.09245772659778595,
        -0.06860695779323578,
        -0.08752065151929855,
        -0.0018349273595958948,
        0.011239517480134964,
        -0.00324048288166523,
        -0.19591021537780762,
        0.0721762627363205,
        0.19487322866916656,
        0.043934110552072525,
        0.1439426690340042,
        0.0913395807147026,
        -0.011080893687903881,
        -0.08607558161020279,
        -0.0708211213350296,
        -0.1150590181350708,
        -0.03113478608429432,
        0.12326190620660782,
        0.06237960234284401,
        -0.02180282585322857,
        0.03720717504620552,
        -0.1331949681043625,
        -0.01117070484906435,
        0.22672636806964874,
        0.04757876321673393,
        0.13616786897182465,
        -0.11419177800416946,
        0.026010779663920403,
        0.11227138340473175,
        -0.04227080196142197,
        -0.1592283844947815,
        0.07360091060400009,
        -0.15315048396587372,
        -0.16357943415641785,
        0.17806515097618103,
        -0.03320978209376335,
        0.08768599480390549,
        -0.19477838277816772,
        -0.08167724311351776,
        0.04501078650355339,
        -0.002649083733558655,
        -0.026396652683615685,
        0.08443108201026917,
        0.14069627225399017,
        0.045783743262290955,
        -0.025594346225261688,
        0.058694228529930115,
        0.10147365182638168,
        0.04937402158975601,
        0.019553683698177338,
        0.1389286071062088,
        0.05498494952917099,
        0.11210756003856659,
        -0.01824239082634449,
        0.027639884501695633,
        -0.10249049961566925,
        -0.1200466901063919,
        -0.16646485030651093,
        -0.10023898631334305,
        -0.03825415298342705,
        -0.08712765574455261,
        -0.023767828941345215,
        -0.03861792013049126,
        0.004862070083618164,
        0.2578897774219513,
        0.006140861194580793,
        0.06749702990055084,
        0.06614430248737335,
        -0.042184554040431976,
        0.06189032644033432,
        -0.012498549185693264,
        -0.29648348689079285,
        -0.08497494459152222,
        -0.008345453068614006,
        0.13289374113082886,
        0.12193470448255539,
        -0.22922731935977936,
        -0.08157235383987427,
        0.3958198130130768,
        -0.05802624300122261,
        0.1712886095046997,
        -0.05152798444032669,
        -0.06162562593817711,
        0.18160974979400635,
        -0.28641319274902344,
        0.19079184532165527,
        0.09615987539291382,
        -0.20390646159648895,
        -0.06168096885085106,
        -0.13164182007312775,
        -0.031039757654070854,
        -0.16119922697544098,
        -0.1407545506954193,
        0.24350124597549438,
        0.1433156430721283,
        0.028976980596780777,
        -0.3132449984550476,
        -0.10298821330070496,
        -0.0403493270277977,
        0.17076216638088226,
        0.08779235929250717,
        0.11165691912174225,
        -0.05683673918247223,
        -0.03485500440001488,
        -0.07546032220125198,
        -0.2783451974391937,
        -0.01270192489027977,
        0.09654343128204346,
        -0.12259239703416824,
        0.22849036753177643,
        0.004229760263115168,
        -0.2785651981830597,
        -0.32419902086257935,
        -0.04382484033703804,
        -0.15711630880832672,
        0.13248831033706665,
        0.0498986653983593,
        -0.03408445045351982,
        0.25807440280914307,
        0.07769102603197098,
        0.04895050823688507,
        -0.31611162424087524,
        -0.10728070884943008,
        0.10326714813709259,
        0.10887224972248077,
        -0.13245843350887299,
        0.138335183262825,
        -0.07638771086931229,
        0.13448765873908997,
        -0.04182010143995285,
        0.047855719923973083,
        0.060987867414951324,
        -0.027623631060123444,
        0.017173560336232185,
        0.15580636262893677,
        -0.11180591583251953,
        -0.028435170650482178,
        -0.058861419558525085,
        0.019412141293287277,
        -0.052991803735494614,
        0.10376295447349548,
        -0.02466139756143093,
        -0.19067765772342682,
        -0.08641816675662994,
        0.0796123743057251,
        -0.08654190599918365,
        -0.08614425361156464,
        0.04572387412190437,
        0.01630580611526966,
        -0.10429002344608307,
        0.12156045436859131,
        0.030610421672463417,
        0.19524630904197693,
        -0.047550566494464874,
        -0.0500192865729332,
        -0.037487465888261795,
        0.09394452720880508,
        0.0012182984501123428,
        0.043501123785972595,
        -0.13457080721855164,
        -0.010589169338345528,
        -0.05384412780404091,
        0.1238260343670845,
        -0.03540080040693283,
        -0.12160801142454147,
        0.11987874656915665,
        -0.051740750670433044,
        0.00834659580141306,
        0.02554400824010372,
        0.08408937603235245,
        -0.2361483871936798,
        -0.03871352598071098,
        0.19845665991306305,
        0.03510746732354164,
        0.022271431982517242,
        0.07425002753734589,
        0.027550585567951202,
        0.0006313620833680034,
        -0.15454740822315216,
        -0.16572704911231995,
        -0.12839443981647491,
        0.012338469736278057,
        -0.0820012241601944,
        0.12414892762899399,
        0.090570367872715,
        -0.059770163148641586,
        0.139923557639122,
        -0.24182088673114777,
        -0.11939100921154022,
        0.048391543328762054,
        -0.2184523493051529,
        0.02271774411201477,
        -0.0645269975066185,
        -0.19475577771663666,
        -0.17046807706356049,
        0.04780230298638344,
        0.10062175244092941,
        0.014388381503522396,
        -0.1253199577331543,
        -0.09215117990970612,
        0.0572272464632988,
        -0.04251369833946228,
        -0.013574584387242794,
        0.0317918099462986,
        -0.008249683305621147,
        0.0865190401673317,
        0.12687239050865173,
        0.0700887069106102,
        0.0074943364597857,
        -0.158916637301445,
        -0.10680018365383148,
        0.03757375106215477,
        0.08230771869421005,
        0.08162149786949158,
        0.0419917106628418,
        0.053818780928850174,
        -0.10389130562543869,
        0.17316854000091553,
        -0.11786837875843048,
        0.08010761439800262,
        -0.06221931055188179,
        -0.13270966708660126,
        -0.08485991507768631,
        0.06659473478794098,
        -0.10498158633708954,
        -0.03683801367878914,
        0.12565456330776215,
        -0.20374548435211182,
        -0.12666010856628418,
        -0.06402690708637238,
        0.08570294082164764,
        0.02029222436249256,
        0.11694002151489258,
        0.019201049581170082,
        0.08820152282714844,
        0.05020662397146225,
        0.18594597280025482,
        0.06312636286020279,
        -0.00046973570715636015,
        -0.026733623817563057,
        -0.060603752732276917,
        0.16708439588546753,
        0.11099453270435333,
        -0.10132357478141785,
        -0.1597529947757721,
        -0.08425679057836533,
        0.08703728765249252,
        -0.09647226333618164,
        0.16237425804138184,
        0.015449244529008865,
        -0.14810417592525482,
        -0.0490531399846077,
        -0.13472338020801544,
        0.0025356404948979616,
        -0.05333007499575615,
        0.015702633187174797,
        -0.02696295827627182,
        -0.2384113073348999,
        0.06532802432775497,
        0.042394209653139114,
        -0.12802521884441376,
        -0.002390578156337142,
        -0.2501232326030731,
        -0.024316750466823578,
        0.050064947456121445,
        0.30957797169685364,
        -0.04314063489437103,
        -0.03173951804637909,
        0.12786057591438293,
        0.1459800750017166,
        -0.06880740821361542,
        -0.0008060960099101067,
        0.018145766109228134,
        -0.00733294477686286,
        -0.06840990483760834,
        0.26402217149734497,
        -0.07965881377458572,
        -0.16049374639987946,
        -0.0058971247635781765,
        0.01428304985165596,
        -0.1253790706396103,
        0.03791089728474617,
        -0.05673537030816078,
        0.0535103864967823,
        0.06376054137945175,
        0.06291648000478745,
        -0.1067887544631958,
        0.024549802765250206,
        0.01525141391903162,
        -0.05158192291855812,
        0.07273560017347336,
        0.026275750249624252,
        -0.032873962074518204,
        0.08098918199539185,
        -0.1523529440164566,
        -0.20184572041034698,
        -0.03319692239165306,
        -0.24874520301818848,
        0.11673837900161743,
        -0.027219586074352264,
        -0.03526955842971802,
        -0.08372862637042999,
        0.018742412328720093,
        -0.24474261701107025,
        0.09232468903064728,
        0.32696256041526794,
        0.11239378154277802,
        -0.14220693707466125,
        -0.023019948974251747,
        -0.047030311077833176,
        -0.014652479439973831,
        -0.10627315938472748,
        -0.07239869236946106,
        -0.07598987221717834,
        -0.0693337470293045,
        -0.07479032874107361,
        -0.048224739730358124,
        -0.06710964441299438,
        -0.13596373796463013,
        0.05976664274930954,
        -0.17414350807666779,
        0.027418429031968117,
        -0.07778992503881454,
        -0.05052235350012779,
        -0.08143670856952667,
        -0.07512063533067703,
        0.020356815308332443,
        0.11497762799263,
        -0.18398629128932953,
        0.09825659543275833,
        0.017464015632867813,
        0.04487244412302971,
        -0.0032078332733362913,
        -0.15533830225467682,
        0.07969466596841812,
        -0.14029739797115326,
        0.06399352848529816,
        0.1031499132514,
        -0.014758050441741943,
        -0.007641931995749474,
        0.050842322409152985,
        -0.1699911206960678,
        0.08798915892839432,
        0.0029485432896763086,
        -0.009373090229928493,
        0.1264621466398239,
        -0.051560018211603165,
        -0.1402805596590042,
        -0.14104747772216797,
        -0.04288458451628685,
        -0.0328855998814106,
        -0.018175359815359116,
        -0.2258061170578003,
        0.10226508229970932,
        -0.06597374379634857,
        -0.056583452969789505,
        -0.17010004818439484,
        0.10835724323987961,
        0.044808171689510345,
        -0.10401377826929092,
        -0.0724153146147728,
        0.09032391756772995,
        0.21712586283683777,
        0.015233268961310387,
        -0.16150915622711182,
        -0.16629764437675476,
        -0.04638504609465599,
        0.09448425471782684,
        0.2599870264530182,
        0.12669388949871063,
        -0.028808992356061935,
        -0.005538216792047024,
        0.10213734209537506,
        -0.021931616589426994,
        0.06407180428504944,
        -0.055135052651166916,
        0.0866059958934784,
        -0.08670827001333237,
        0.0750584751367569,
        -0.1498783528804779,
        -0.02376323938369751,
        -0.07851477712392807,
        -0.1701911836862564,
        0.03395873308181763,
        -0.21592116355895996,
        -0.022698143497109413,
        -0.18095922470092773,
        -0.15071676671504974,
        -0.0478745736181736,
        -0.10617934167385101,
        0.09515736252069473,
        0.1404886543750763,
        0.09646633267402649,
        0.06876382976770401,
        0.014797570183873177,
        0.05027318373322487,
        -0.025479750707745552,
        -0.03285149857401848,
        0.22688597440719604,
        -0.02135283686220646,
        -0.1650284230709076,
        -0.15526115894317627,
        -0.006701312027871609,
        -0.054815828800201416,
        -0.09883670508861542,
        0.04738286882638931,
        -0.024803686887025833,
        0.3175002932548523,
        -0.1064707413315773,
        0.14756445586681366,
        -0.19725848734378815,
        -0.040083881467580795,
        -0.10939330607652664,
        -0.05460221320390701,
        0.13215824961662292,
        -0.033281151205301285,
        0.050402138382196426,
        0.027829574421048164,
        -0.01572931744158268,
        0.05456249415874481,
        -0.04615103825926781,
        0.04901405796408653,
        0.08277768641710281,
        -0.03257477283477783,
        0.14877845346927643,
        -0.19390691816806793,
        0.042283449321985245,
        -0.023009922355413437,
        -0.02342880517244339,
        0.08811596035957336,
        0.1183185875415802,
        0.18747949600219727,
        -0.20311957597732544,
        0.08404025435447693,
        0.10458081215620041,
        0.12377122044563293,
        0.025834018364548683,
        0.14415358006954193,
        -0.09743868559598923,
        -0.03661644086241722,
        0.01613546535372734,
        -0.00941274594515562,
        0.017535507678985596,
        -0.00351541256532073,
        -0.08767056465148926,
        0.09963375329971313,
        -0.0724760964512825,
        -0.08170969039201736,
        0.0027731123846024275,
        0.02749643102288246,
        -0.04800033196806908,
        0.12376469373703003,
        -0.08721781522035599,
        -0.19873791933059692,
        -0.03045896254479885,
        0.1575695127248764,
        -0.2584332823753357,
        0.021219050511717796,
        -0.17793160676956177,
        0.06671727448701859,
        0.0694115161895752,
        0.03598012775182724,
        0.08178489655256271,
        -0.008826879784464836,
        -0.19170744717121124,
        0.02074599452316761,
        0.07892677187919617,
        -0.09993937611579895,
        0.19432368874549866,
        -0.1246517151594162,
        -0.0606885589659214,
        0.07196436077356339,
        0.0119502954185009,
        0.0347643718123436,
        0.050110820680856705,
        -0.06300971657037735,
        -0.013997904025018215,
        -0.01579449512064457,
        -0.023320244625210762,
        0.012523515149950981,
        0.13524512946605682,
        0.13296911120414734,
        0.02113165147602558,
        -0.11501335352659225,
        -0.15598294138908386,
        -0.04407430440187454,
        -0.12760253250598907,
        -0.13387277722358704,
        -0.1684490442276001,
        -0.1332959085702896,
        -0.07532840967178345,
        -0.21261066198349,
        -0.04730838164687157,
        0.09669850766658783,
        -0.14870968461036682,
        0.1402033120393753,
        0.07952134311199188,
        -0.042590364813804626,
        0.13661645352840424,
        -0.10726658999919891,
        -0.23538987338542938,
        0.14010044932365417,
        -0.0623570941388607,
        -0.26601651310920715,
        0.08766775578260422,
        -0.029697010293602943,
        0.003249627770856023,
        -0.07524709403514862,
        -0.10715176910161972,
        -0.2045333832502365,
        0.3228146433830261,
        0.012856804765760899,
        0.07407717406749725,
        -0.1831345558166504,
        -0.03921668231487274,
        -0.04107414186000824,
        0.09023212641477585,
        -0.05094943568110466,
        0.048192545771598816,
        -0.06403300166130066,
        0.2032947540283203,
        -0.08945348113775253,
        0.009886776097118855,
        -0.07945408672094345,
        -0.08468377590179443,
        0.03275033086538315,
        -0.16793347895145416,
        0.23475328087806702,
        -0.1209169328212738,
        0.11064089089632034,
        -0.08323321491479874,
        0.03628067299723625,
        0.0504942387342453,
        -0.03354785963892937,
        0.0555085688829422,
        -0.27436137199401855,
        0.053527604788541794,
        -0.17045089602470398,
        0.070362888276577,
        0.2420647144317627,
        0.07514085620641708,
        0.002725006081163883,
        0.02042965218424797,
        0.014203757047653198,
        -0.010068291798233986,
        0.06190761178731918,
        0.13235658407211304,
        0.09153980016708374,
        0.1949232965707779,
        0.06339644640684128,
        0.037597209215164185,
        0.30339494347572327,
        -0.1750701367855072,
        0.15817096829414368,
        -0.3185780346393585,
        0.020977236330509186,
        -0.03653091937303543,
        -0.08509746193885803,
        0.0855991467833519,
        0.09963230043649673,
        -0.014925281517207623,
        -0.0251824501901865,
        0.056470077484846115,
        0.03729375824332237,
        -0.20356936752796173,
        -0.1000647097826004,
        0.007591026369482279,
        0.10930059850215912,
        -0.008468801155686378,
        0.047133974730968475,
        0.10727616399526596,
        -0.07070394605398178,
        -0.08508913964033127,
        0.00012538630107883364,
        0.02720623090863228,
        0.04075544327497482,
        -0.07866837084293365,
        0.04839657247066498,
        0.017865555360913277,
        -0.03105136752128601,
        0.013703123666346073,
        0.08012811094522476,
        -0.05761845409870148,
        0.03016224130988121,
        0.014796322211623192,
        0.11852221935987473,
        -0.005480349529534578,
        0.02399231493473053,
        -0.19969715178012848,
        -0.011387350969016552,
        0.12258990854024887,
        -0.05531289428472519,
        -0.13309703767299652,
        -0.006883271504193544,
        -0.11179169267416,
        0.08572156727313995,
        0.1797170341014862,
        -0.1317371129989624,
        -0.060581009835004807,
        0.048070602118968964,
        -0.05826086550951004,
        0.0009314532508142292,
        -0.0765683576464653,
        0.03190146014094353,
        -0.024488985538482666,
        0.09674762189388275,
        0.1437717229127884,
        0.06023556739091873,
        0.08867098391056061,
        0.07896997034549713,
        0.0057962252758443356,
        0.1302933692932129,
        0.0005765043897554278,
        -0.03228619322180748,
        -0.004196462221443653,
        0.05198096111416817,
        -0.07924288511276245,
        -0.1343214362859726,
        -0.2087119072675705,
        -0.08441885560750961,
        -0.20964853465557098,
        -0.18627695739269257,
        -0.019241534173488617,
        0.13676603138446808,
        -0.10200770199298859,
        -0.08442257344722748,
        -0.13472533226013184,
        -0.02169758267700672,
        0.19553175568580627,
        0.09041795134544373,
        0.17965111136436462,
        0.11274979263544083,
        0.03445367142558098,
        0.08798916637897491,
        0.002059756778180599,
        0.18628589808940887,
        0.06788310408592224,
        0.028763925656676292,
        0.2371184378862381,
        -0.107894167304039,
        -0.15349213778972626,
        -0.0392862893640995,
        -0.2290003001689911,
        -0.008141747675836086,
        0.08653393387794495,
        0.08039585500955582,
        0.04605645313858986,
        -0.06349918991327286,
        0.038611821830272675,
        -0.15932445228099823,
        0.005657821893692017,
        -0.2093689739704132,
        0.001251622918061912,
        0.09771901369094849,
        0.10146710276603699,
        -0.017619997262954712,
        0.025289475917816162,
        0.0995739996433258,
        -0.10015547275543213,
        0.08243399113416672,
        0.14248661696910858,
        -0.13974715769290924,
        0.025360800325870514,
        0.09975867718458176,
        0.022271689027547836,
        0.08364593237638474,
        0.05574458837509155,
        0.06598549336194992,
        -0.0002708587853703648,
        -0.15629513561725616,
        0.04267292469739914,
        -0.01818222738802433,
        0.09975786507129669,
        0.018311863765120506,
        0.0746772289276123,
        0.06678736954927444,
        0.020953074097633362,
        -0.033711161464452744,
        0.0455472394824028,
        -0.15013185143470764,
        -0.023891985416412354,
        -0.11421362310647964,
        -0.032546985894441605,
        -0.14151836931705475,
        0.11374659836292267,
        -0.1812305599451065,
        -0.011805560439825058,
        0.11000576615333557,
        -0.13202330470085144,
        0.1705753058195114,
        0.00048436291399411857,
        -0.06389031559228897,
        0.022997114807367325,
        -0.015941515564918518,
        0.10808220505714417,
        -0.05869324877858162,
        -0.11243391036987305,
        -0.13515475392341614,
        -0.1560686081647873,
        0.1704043745994568,
        0.14080356061458588,
        0.004629313480108976,
        0.09635372459888458,
        -0.10395610332489014,
        0.11730964481830597,
        -0.02540103904902935,
        -0.05885252729058266,
        -0.05840657651424408,
        0.13928808271884918,
        -0.013059668242931366,
        0.11144451051950455,
        0.011041195131838322,
        -0.0717952623963356,
        0.03721309453248978,
        0.02298017218708992,
        0.05495269596576691,
        -0.26459887623786926,
        -0.423398494720459,
        0.7963622808456421,
        0.4181247055530548,
        -0.49354538321495056,
        0.07890179753303528,
        -0.15136459469795227,
        -0.06854965537786484,
        0.47721022367477417,
        -0.7437991499900818,
        1.1345115900039673,
        0.5925473570823669,
        0.019341615960001945,
        -0.21319225430488586,
        0.26865512132644653,
        -0.8516061902046204,
        0.1551601141691208,
        -0.2557867169380188,
        0.1325562596321106,
        -0.3894834518432617,
        0.055659737437963486,
        0.27092990279197693,
        0.29150092601776123,
        -0.01791727915406227,
        0.2123594433069229,
        0.0044784992933273315,
        0.17621926963329315,
        0.18839368224143982,
        -0.19400712847709656,
        0.08416850119829178,
        -0.12373963743448257,
        -0.15632541477680206,
        0.35786202549934387,
        0.06479772925376892,
        -0.048909202218055725,
        0.16283942759037018,
        0.2567548453807831,
        0.3544163703918457,
        -0.0027292734012007713,
        -0.2025434970855713,
        -0.3610282838344574,
        0.1900862753391266,
        0.1034647598862648,
        -0.17842116951942444,
        0.3102506697177887,
        0.22751714289188385,
        0.1111808642745018,
        -0.019276205450296402,
        -0.06538110971450806,
        -0.17869772017002106,
        0.09016217291355133,
        -0.2594556212425232,
        0.18169860541820526,
        -0.10145322978496552,
        -0.08241250365972519,
        -0.09464098513126373,
        -0.06778063625097275,
        -0.002838411135599017,
        -0.2472417652606964,
        0.1833454966545105,
        0.05244430899620056,
        -0.3799728751182556,
        -0.09412433952093124,
        0.12738800048828125,
        0.2604126036167145,
        -0.04483110457658768,
        0.10252740234136581,
        -0.14625635743141174,
        -0.0734790563583374,
        0.22039441764354706,
        -0.1865067034959793,
        0.29757606983184814,
        0.1978071928024292,
        -0.017444120720028877,
        -0.03060530684888363,
        0.2733282148838043,
        0.055743273347616196,
        0.13058999180793762,
        0.01307553518563509,
        -0.025319816544651985,
        -0.15230730175971985,
        -0.26864537596702576,
        0.3252373933792114,
        -0.2180030792951584,
        -0.06748895347118378,
        -0.24065758287906647,
        0.09884127229452133,
        -0.017565861344337463,
        0.32771173119544983,
        -0.22535987198352814,
        -0.21254122257232666,
        0.20251302421092987,
        -0.3579070568084717,
        -0.22795338928699493,
        0.11170222610235214,
        -0.1825585514307022,
        -0.17643126845359802,
        -0.1244317963719368,
        0.10475217550992966,
        -0.07321067899465561,
        -0.17690186202526093,
        -0.21485449373722076,
        0.23418286442756653,
        0.07137107849121094,
        -0.09115118533372879,
        -0.25845620036125183,
        0.032973043620586395,
        0.09558417648077011,
        0.05388154089450836,
        0.0672428086400032,
        0.2123604416847229,
        0.03998946398496628,
        0.15059949457645416,
        0.26539552211761475,
        -0.20870257914066315,
        0.13417482376098633,
        0.25918591022491455,
        -0.03105875663459301,
        -0.04090999811887741,
        -0.016994507983326912,
        -0.29961055517196655,
        0.24418732523918152,
        0.20014525949954987,
        -0.22259016335010529,
        0.21436448395252228,
        -0.004200843162834644,
        0.12013983726501465,
        0.19700385630130768,
        0.2695132791996002,
        0.188170924782753,
        -0.20701265335083008,
        -0.18821357190608978,
        0.12566430866718292,
        -0.10200618952512741,
        0.10981204360723495,
        -0.11527395993471146,
        0.004065448418259621,
        0.09518469125032425,
        0.07926896214485168,
        0.17816363275051117,
        0.07494598627090454,
        0.029569068923592567,
        0.06903104484081268,
        -0.06388633698225021,
        -0.2393338978290558,
        0.16510187089443207,
        -0.07495413720607758,
        0.14139539003372192,
        0.097370944917202,
        0.050829507410526276,
        -0.22267337143421173,
        0.04815824702382088,
        -0.07681544125080109,
        0.046217262744903564,
        -0.18635782599449158,
        0.26759812235832214,
        -0.3490637242794037,
        -0.08758361637592316,
        0.002213225234299898,
        0.02082780934870243,
        0.3246435821056366,
        0.03790653124451637,
        -0.29804813861846924,
        0.3808719515800476,
        0.17222478985786438,
        0.24830041825771332,
        -0.25516533851623535,
        -0.15372824668884277,
        -0.20449307560920715,
        0.15826104581356049,
        0.19248761236667633,
        -0.2657962143421173,
        0.037231966853141785,
        0.02166898362338543,
        0.2689652442932129,
        -0.05069202929735184,
        0.20856542885303497,
        -0.20692351460456848,
        -0.13822712004184723,
        -0.35547971725463867,
        0.16014359891414642,
        -0.11093062907457352,
        0.13252586126327515,
        -0.016637612134218216,
        0.25336846709251404,
        0.06599809229373932,
        -0.33599427342414856,
        0.06483319401741028,
        -0.027435313910245895,
        -0.23876234889030457,
        -0.012114400044083595,
        0.35258540511131287,
        -0.17734503746032715,
        -0.10187321156263351,
        0.006394688040018082,
        -0.1642928272485733,
        -0.20558448135852814,
        0.0888739824295044,
        0.15686947107315063,
        0.24317553639411926,
        0.02949848398566246,
        -0.30867740511894226,
        -0.4257084131240845,
        0.26924803853034973,
        -0.5085384845733643,
        -0.30149009823799133,
        -0.09952516108751297,
        0.17213109135627747,
        -0.36649593710899353,
        -0.2661181390285492,
        0.02352057583630085,
        -0.08500072360038757,
        0.15814107656478882,
        -0.050326570868492126,
        -0.2842566967010498,
        -0.14682850241661072,
        0.18519234657287598,
        -0.10676832497119904,
        -0.3191162645816803,
        0.06303428113460541,
        -0.17668798565864563,
        0.00784735195338726,
        0.0671832263469696,
        -0.08773178607225418,
        -0.2327185869216919,
        0.0661381408572197,
        -0.12323623150587082,
        -0.13948051631450653,
        -0.02048693597316742,
        -0.17631004750728607,
        0.16328617930412292,
        -0.1576535552740097,
        0.10107417404651642,
        -0.029990313574671745,
        0.03949497267603874,
        -0.17090266942977905,
        -0.09422524273395538,
        0.13808195292949677,
        -0.19023661315441132,
        0.08393769711256027,
        0.015507825650274754,
        0.2051216959953308,
        -0.0539177730679512,
        0.04786660894751549,
        -0.07363854348659515,
        -0.0060510472394526005,
        0.040532805025577545,
        -0.23034776747226715,
        0.2095886468887329,
        0.17320847511291504,
        0.1471707671880722,
        0.1844399869441986,
        -0.07958252727985382,
        0.03538713976740837,
        0.06336761265993118,
        -0.16711802780628204,
        -0.47165170311927795,
        -0.47848182916641235,
        0.012968913652002811,
        -0.36545777320861816,
        -0.4108774662017822,
        -0.18656665086746216,
        -0.029266461730003357,
        -0.16533006727695465,
        0.33210495114326477,
        -0.04161762818694115,
        0.010735037736594677,
        0.29965755343437195,
        -0.4520740807056427,
        0.07229765504598618,
        -0.11804500967264175,
        0.050716791301965714,
        -0.0017220012377947569,
        -0.015053768642246723,
        0.09598279744386673,
        0.06422022730112076,
        -0.09553252160549164,
        0.16147904098033905,
        0.17946814000606537,
        0.02610175497829914,
        -0.2889668643474579,
        -0.17394375801086426,
        0.03928356245160103,
        0.036238234490156174,
        0.21685943007469177,
        0.12767967581748962,
        0.0826898142695427,
        -0.06208789721131325,
        0.05893513932824135,
        -0.09860508143901825,
        0.038009416311979294,
        -0.08682882785797119,
        -0.0305919386446476,
        0.018830521032214165,
        0.09258084744215012,
        -0.013205309398472309,
        0.06936529278755188,
        -0.13173916935920715,
        -0.03234301880002022,
        0.06634926795959473,
        0.04914268106222153,
        -0.16355276107788086,
        -0.07697376608848572,
        0.1410030871629715,
        0.0647900253534317,
        0.13302789628505707,
        0.11696014553308487,
        -0.024498257786035538,
        -0.09253188222646713,
        -0.09214520454406738,
        0.13717469573020935,
        0.05298085883259773,
        -0.011876468546688557,
        -0.18186646699905396,
        -0.06521439552307129,
        0.007578518241643906,
        0.0847446396946907,
        -0.07656968384981155,
        -0.11615215986967087,
        -0.14049220085144043,
        0.14923638105392456,
        -0.07151123881340027,
        -0.20724591612815857,
        -0.01604079082608223,
        -0.11494472622871399,
        0.02982647903263569,
        0.019508199766278267,
        -0.011837422847747803,
        -0.1367376148700714,
        -0.07280977070331573,
        -0.12455375492572784,
        -0.09853914380073547,
        -0.03612605854868889,
        0.037019919604063034,
        -0.07646031677722931,
        0.05774451792240143,
        -0.03602135181427002,
        0.14821909368038177,
        -0.06653574109077454,
        0.13483116030693054,
        -0.16712059080600739,
        -0.19460612535476685,
        -0.08445443212985992,
        -0.23624087870121002,
        0.13440951704978943,
        -0.10806445777416229,
        -0.08321449905633926,
        0.17876844108104706,
        0.02813887409865856,
        0.06790951639413834,
        0.2128521353006363,
        0.15983040630817413,
        -0.0011921791592612863,
        0.023993568494915962,
        -0.17918436229228973,
        0.06312781572341919,
        -0.04253240302205086,
        0.003107829485088587,
        0.037290770560503006,
        -0.058341555297374725,
        -0.057133350521326065,
        -0.021186934784054756,
        -0.09274140745401382,
        0.05155681446194649,
        0.1620895266532898,
        0.11632951349020004,
        -0.1331384778022766,
        -0.07463042438030243,
        0.07947743684053421,
        0.06126006320118904,
        -0.3083643913269043,
        0.05932248756289482,
        -0.1415300816297531,
        -0.033551011234521866,
        0.13169096410274506,
        -0.29020118713378906,
        -0.10386808961629868,
        -0.1629064530134201,
        0.02771214209496975,
        0.07150675356388092,
        0.0077844178304076195,
        -0.032370083034038544,
        0.13198132812976837,
        0.040532540529966354,
        -0.20025315880775452,
        -0.11272914707660675,
        0.1341189593076706,
        0.1438433676958084,
        -0.030021250247955322,
        -0.24253252148628235,
        -0.2792471647262573,
        0.011130783706903458,
        -0.00013396146823652089,
        -0.08275727927684784,
        -0.043156951665878296,
        -0.18896864354610443,
